<?xml version="1.0" encoding="UTF-8" standalone="yes"?>
<PMML xmlns="http://www.dmg.org/PMML-4_3" version="4.3">
  <Header>
    <Application name="JPMML-SparkML-Package" version="1.3-SNAPSHOT"/>
    <Timestamp>2017-09-26T19:56:19Z</Timestamp>
  </Header>
  <DataDictionary>
    <DataField name="f0" optype="continuous" dataType="double"/>
    <DataField name="f1" optype="continuous" dataType="double"/>
    <DataField name="f2" optype="continuous" dataType="double"/>
    <DataField name="f3" optype="continuous" dataType="double"/>
    <DataField name="f4" optype="continuous" dataType="double"/>
    <DataField name="f5" optype="continuous" dataType="double"/>
    <DataField name="f7" optype="continuous" dataType="double"/>
    <DataField name="f8" optype="continuous" dataType="double"/>
    <DataField name="f9" optype="continuous" dataType="double"/>
    <DataField name="f10" optype="continuous" dataType="double"/>
    <DataField name="f11" optype="continuous" dataType="double"/>
    <DataField name="f12" optype="continuous" dataType="double"/>
    <DataField name="f13" optype="continuous" dataType="double"/>
    <DataField name="f15" optype="continuous" dataType="double"/>
    <DataField name="f16" optype="continuous" dataType="double"/>
    <DataField name="f17" optype="continuous" dataType="double"/>
    <DataField name="f18" optype="continuous" dataType="double"/>
    <DataField name="f19" optype="continuous" dataType="double"/>
    <DataField name="f20" optype="continuous" dataType="double"/>
    <DataField name="f21" optype="continuous" dataType="double"/>
    <DataField name="label" optype="categorical" dataType="double">
      <Value value="0"/>
      <Value value="1"/>
      <Value value="2"/>
      <Value value="3"/>
      <Value value="4"/>
    </DataField>
  </DataDictionary>
  <TreeModel functionName="classification" splitCharacteristic="binarySplit">
    <MiningSchema>
      <MiningField name="label" usageType="target"/>
      <MiningField name="f0"/>
      <MiningField name="f1"/>
      <MiningField name="f2"/>
      <MiningField name="f3"/>
      <MiningField name="f4"/>
      <MiningField name="f5"/>
      <MiningField name="f7"/>
      <MiningField name="f8"/>
      <MiningField name="f9"/>
      <MiningField name="f10"/>
      <MiningField name="f11"/>
      <MiningField name="f12"/>
      <MiningField name="f13"/>
      <MiningField name="f15"/>
      <MiningField name="f16"/>
      <MiningField name="f17"/>
      <MiningField name="f18"/>
      <MiningField name="f19"/>
      <MiningField name="f20"/>
      <MiningField name="f21"/>
    </MiningSchema>
    <Output>
      <OutputField name="pmml(prediction)" optype="categorical" dataType="double" feature="predictedValue"/>
      <OutputField name="prediction" optype="categorical" dataType="double" feature="transformedValue">
        <MapValues outputColumn="output">
          <FieldColumnPair field="pmml(prediction)" column="input"/>
          <InlineTable>
            <row>
              <input xmlns:ns2="http://www.dmg.org/PMML-4_3" xmlns="">0</input>
              <output xmlns:ns2="http://www.dmg.org/PMML-4_3" xmlns="">0</output>
            </row>
            <row>
              <input xmlns:ns2="http://www.dmg.org/PMML-4_3" xmlns="">1</input>
              <output xmlns:ns2="http://www.dmg.org/PMML-4_3" xmlns="">1</output>
            </row>
            <row>
              <input xmlns:ns2="http://www.dmg.org/PMML-4_3" xmlns="">2</input>
              <output xmlns:ns2="http://www.dmg.org/PMML-4_3" xmlns="">2</output>
            </row>
            <row>
              <input xmlns:ns2="http://www.dmg.org/PMML-4_3" xmlns="">3</input>
              <output xmlns:ns2="http://www.dmg.org/PMML-4_3" xmlns="">3</output>
            </row>
            <row>
              <input xmlns:ns2="http://www.dmg.org/PMML-4_3" xmlns="">4</input>
              <output xmlns:ns2="http://www.dmg.org/PMML-4_3" xmlns="">4</output>
            </row>
          </InlineTable>
        </MapValues>
      </OutputField>
      <OutputField name="probability(0)" optype="continuous" dataType="double" feature="probability" value="0"/>
      <OutputField name="probability(1)" optype="continuous" dataType="double" feature="probability" value="1"/>
      <OutputField name="probability(2)" optype="continuous" dataType="double" feature="probability" value="2"/>
      <OutputField name="probability(3)" optype="continuous" dataType="double" feature="probability" value="3"/>
      <OutputField name="probability(4)" optype="continuous" dataType="double" feature="probability" value="4"/>
    </Output>
    <Node score="4" recordCount="5047.0">
      <True/>
      <ScoreDistribution value="1" recordCount="47.0"/>
      <ScoreDistribution value="2" recordCount="369.0"/>
      <ScoreDistribution value="3" recordCount="1530.0"/>
      <ScoreDistribution value="4" recordCount="3101.0"/>
      <Node score="4" recordCount="2997.0">
        <SimplePredicate field="f18" operator="lessOrEqual" value="-0.029788945928338"/>
        <ScoreDistribution value="1" recordCount="1.0"/>
        <ScoreDistribution value="2" recordCount="28.0"/>
        <ScoreDistribution value="3" recordCount="224.0"/>
        <ScoreDistribution value="4" recordCount="2744.0"/>
        <Node score="4" recordCount="698.0">
          <SimplePredicate field="f12" operator="lessOrEqual" value="0.16019909509269"/>
          <ScoreDistribution value="1" recordCount="1.0"/>
          <ScoreDistribution value="2" recordCount="28.0"/>
          <ScoreDistribution value="3" recordCount="191.0"/>
          <ScoreDistribution value="4" recordCount="478.0"/>
          <Node score="4" recordCount="470.0">
            <SimplePredicate field="f11" operator="lessOrEqual" value="-0.0291825140541575"/>
            <ScoreDistribution value="1" recordCount="1.0"/>
            <ScoreDistribution value="2" recordCount="16.0"/>
            <ScoreDistribution value="3" recordCount="32.0"/>
            <ScoreDistribution value="4" recordCount="421.0"/>
            <Node score="4" recordCount="422.0">
              <SimplePredicate field="f12" operator="lessOrEqual" value="-0.00220870351347617"/>
              <ScoreDistribution value="1" recordCount="1.0"/>
              <ScoreDistribution value="2" recordCount="12.0"/>
              <ScoreDistribution value="3" recordCount="10.0"/>
              <ScoreDistribution value="4" recordCount="399.0"/>
              <Node score="2" recordCount="18.0">
                <SimplePredicate field="f20" operator="lessOrEqual" value="-0.0123679376005229"/>
                <ScoreDistribution value="2" recordCount="9.0"/>
                <ScoreDistribution value="4" recordCount="9.0"/>
              </Node>
              <Node score="4" recordCount="404.0">
                <SimplePredicate field="f20" operator="greaterThan" value="-0.0123679376005229"/>
                <ScoreDistribution value="1" recordCount="1.0"/>
                <ScoreDistribution value="2" recordCount="3.0"/>
                <ScoreDistribution value="3" recordCount="10.0"/>
                <ScoreDistribution value="4" recordCount="390.0"/>
              </Node>
            </Node>
            <Node score="3" recordCount="48.0">
              <SimplePredicate field="f12" operator="greaterThan" value="-0.00220870351347617"/>
              <ScoreDistribution value="2" recordCount="4.0"/>
              <ScoreDistribution value="3" recordCount="22.0"/>
              <ScoreDistribution value="4" recordCount="22.0"/>
              <Node score="4" recordCount="21.0">
                <SimplePredicate field="f4" operator="lessOrEqual" value="-0.141050807076372"/>
                <ScoreDistribution value="3" recordCount="4.0"/>
                <ScoreDistribution value="4" recordCount="17.0"/>
              </Node>
              <Node score="3" recordCount="27.0">
                <SimplePredicate field="f4" operator="greaterThan" value="-0.141050807076372"/>
                <ScoreDistribution value="2" recordCount="4.0"/>
                <ScoreDistribution value="3" recordCount="18.0"/>
                <ScoreDistribution value="4" recordCount="5.0"/>
              </Node>
            </Node>
          </Node>
          <Node score="3" recordCount="228.0">
            <SimplePredicate field="f11" operator="greaterThan" value="-0.0291825140541575"/>
            <ScoreDistribution value="2" recordCount="12.0"/>
            <ScoreDistribution value="3" recordCount="159.0"/>
            <ScoreDistribution value="4" recordCount="57.0"/>
            <Node score="4" recordCount="83.0">
              <SimplePredicate field="f2" operator="lessOrEqual" value="0.312735717152404"/>
              <ScoreDistribution value="2" recordCount="11.0"/>
              <ScoreDistribution value="3" recordCount="21.0"/>
              <ScoreDistribution value="4" recordCount="51.0"/>
              <Node score="4" recordCount="49.0">
                <SimplePredicate field="f17" operator="lessOrEqual" value="-0.0414534660140215"/>
                <ScoreDistribution value="3" recordCount="1.0"/>
                <ScoreDistribution value="4" recordCount="48.0"/>
              </Node>
              <Node score="3" recordCount="34.0">
                <SimplePredicate field="f17" operator="greaterThan" value="-0.0414534660140215"/>
                <ScoreDistribution value="2" recordCount="11.0"/>
                <ScoreDistribution value="3" recordCount="20.0"/>
                <ScoreDistribution value="4" recordCount="3.0"/>
              </Node>
            </Node>
            <Node score="3" recordCount="145.0">
              <SimplePredicate field="f2" operator="greaterThan" value="0.312735717152404"/>
              <ScoreDistribution value="2" recordCount="1.0"/>
              <ScoreDistribution value="3" recordCount="138.0"/>
              <ScoreDistribution value="4" recordCount="6.0"/>
              <Node score="2" recordCount="2.0">
                <SimplePredicate field="f8" operator="lessOrEqual" value="-0.160078118575864"/>
                <ScoreDistribution value="2" recordCount="1.0"/>
                <ScoreDistribution value="4" recordCount="1.0"/>
              </Node>
              <Node score="3" recordCount="143.0">
                <SimplePredicate field="f8" operator="greaterThan" value="-0.160078118575864"/>
                <ScoreDistribution value="3" recordCount="138.0"/>
                <ScoreDistribution value="4" recordCount="5.0"/>
              </Node>
            </Node>
          </Node>
        </Node>
        <Node score="4" recordCount="2299.0">
          <SimplePredicate field="f12" operator="greaterThan" value="0.16019909509269"/>
          <ScoreDistribution value="3" recordCount="33.0"/>
          <ScoreDistribution value="4" recordCount="2266.0"/>
          <Node score="4" recordCount="2277.0">
            <SimplePredicate field="f9" operator="lessOrEqual" value="0.243338588124462"/>
            <ScoreDistribution value="3" recordCount="22.0"/>
            <ScoreDistribution value="4" recordCount="2255.0"/>
            <Node score="4" recordCount="2248.0">
              <SimplePredicate field="f10" operator="lessOrEqual" value="-0.109364986887241"/>
              <ScoreDistribution value="3" recordCount="14.0"/>
              <ScoreDistribution value="4" recordCount="2234.0"/>
              <Node score="4" recordCount="12.0">
                <SimplePredicate field="f1" operator="lessOrEqual" value="-0.0107984937206136"/>
                <ScoreDistribution value="3" recordCount="4.0"/>
                <ScoreDistribution value="4" recordCount="8.0"/>
              </Node>
              <Node score="4" recordCount="2236.0">
                <SimplePredicate field="f1" operator="greaterThan" value="-0.0107984937206136"/>
                <ScoreDistribution value="3" recordCount="10.0"/>
                <ScoreDistribution value="4" recordCount="2226.0"/>
              </Node>
            </Node>
            <Node score="4" recordCount="29.0">
              <SimplePredicate field="f10" operator="greaterThan" value="-0.109364986887241"/>
              <ScoreDistribution value="3" recordCount="8.0"/>
              <ScoreDistribution value="4" recordCount="21.0"/>
              <Node score="3" recordCount="6.0">
                <SimplePredicate field="f20" operator="lessOrEqual" value="0.0236108561276819"/>
                <ScoreDistribution value="3" recordCount="5.0"/>
                <ScoreDistribution value="4" recordCount="1.0"/>
              </Node>
              <Node score="4" recordCount="23.0">
                <SimplePredicate field="f20" operator="greaterThan" value="0.0236108561276819"/>
                <ScoreDistribution value="3" recordCount="3.0"/>
                <ScoreDistribution value="4" recordCount="20.0"/>
              </Node>
            </Node>
          </Node>
          <Node score="3" recordCount="22.0">
            <SimplePredicate field="f9" operator="greaterThan" value="0.243338588124462"/>
            <ScoreDistribution value="3" recordCount="11.0"/>
            <ScoreDistribution value="4" recordCount="11.0"/>
            <Node score="4" recordCount="13.0">
              <SimplePredicate field="f3" operator="lessOrEqual" value="0.466775842251124"/>
              <ScoreDistribution value="3" recordCount="2.0"/>
              <ScoreDistribution value="4" recordCount="11.0"/>
              <Node score="3" recordCount="3.0">
                <SimplePredicate field="f5" operator="lessOrEqual" value="0.139066045468346"/>
                <ScoreDistribution value="3" recordCount="2.0"/>
                <ScoreDistribution value="4" recordCount="1.0"/>
              </Node>
              <Node score="4" recordCount="10.0">
                <SimplePredicate field="f5" operator="greaterThan" value="0.139066045468346"/>
                <ScoreDistribution value="4" recordCount="10.0"/>
              </Node>
            </Node>
            <Node score="3" recordCount="9.0">
              <SimplePredicate field="f3" operator="greaterThan" value="0.466775842251124"/>
              <ScoreDistribution value="3" recordCount="9.0"/>
            </Node>
          </Node>
        </Node>
      </Node>
      <Node score="3" recordCount="2050.0">
        <SimplePredicate field="f18" operator="greaterThan" value="-0.029788945928338"/>
        <ScoreDistribution value="1" recordCount="46.0"/>
        <ScoreDistribution value="2" recordCount="341.0"/>
        <ScoreDistribution value="3" recordCount="1306.0"/>
        <ScoreDistribution value="4" recordCount="357.0"/>
        <Node score="3" recordCount="1718.0">
          <SimplePredicate field="f12" operator="lessOrEqual" value="0.195699858310674"/>
          <ScoreDistribution value="1" recordCount="43.0"/>
          <ScoreDistribution value="2" recordCount="334.0"/>
          <ScoreDistribution value="3" recordCount="1241.0"/>
          <ScoreDistribution value="4" recordCount="100.0"/>
          <Node score="3" recordCount="1128.0">
            <SimplePredicate field="f13" operator="lessOrEqual" value="0.0345211233340688"/>
            <ScoreDistribution value="1" recordCount="6.0"/>
            <ScoreDistribution value="2" recordCount="38.0"/>
            <ScoreDistribution value="3" recordCount="1064.0"/>
            <ScoreDistribution value="4" recordCount="20.0"/>
            <Node score="2" recordCount="53.0">
              <SimplePredicate field="f8" operator="lessOrEqual" value="-0.0950063837990159"/>
              <ScoreDistribution value="1" recordCount="1.0"/>
              <ScoreDistribution value="2" recordCount="33.0"/>
              <ScoreDistribution value="3" recordCount="13.0"/>
              <ScoreDistribution value="4" recordCount="6.0"/>
              <Node score="2" recordCount="33.0">
                <SimplePredicate field="f15" operator="lessOrEqual" value="-0.0707162308388531"/>
                <ScoreDistribution value="2" recordCount="33.0"/>
              </Node>
              <Node score="3" recordCount="20.0">
                <SimplePredicate field="f15" operator="greaterThan" value="-0.0707162308388531"/>
                <ScoreDistribution value="1" recordCount="1.0"/>
                <ScoreDistribution value="3" recordCount="13.0"/>
                <ScoreDistribution value="4" recordCount="6.0"/>
              </Node>
            </Node>
            <Node score="3" recordCount="1075.0">
              <SimplePredicate field="f8" operator="greaterThan" value="-0.0950063837990159"/>
              <ScoreDistribution value="1" recordCount="5.0"/>
              <ScoreDistribution value="2" recordCount="5.0"/>
              <ScoreDistribution value="3" recordCount="1051.0"/>
              <ScoreDistribution value="4" recordCount="14.0"/>
              <Node score="3" recordCount="1057.0">
                <SimplePredicate field="f12" operator="lessOrEqual" value="0.16019909509269"/>
                <ScoreDistribution value="1" recordCount="5.0"/>
                <ScoreDistribution value="2" recordCount="5.0"/>
                <ScoreDistribution value="3" recordCount="1039.0"/>
                <ScoreDistribution value="4" recordCount="8.0"/>
              </Node>
              <Node score="3" recordCount="18.0">
                <SimplePredicate field="f12" operator="greaterThan" value="0.16019909509269"/>
                <ScoreDistribution value="3" recordCount="12.0"/>
                <ScoreDistribution value="4" recordCount="6.0"/>
              </Node>
            </Node>
          </Node>
          <Node score="2" recordCount="590.0">
            <SimplePredicate field="f13" operator="greaterThan" value="0.0345211233340688"/>
            <ScoreDistribution value="1" recordCount="37.0"/>
            <ScoreDistribution value="2" recordCount="296.0"/>
            <ScoreDistribution value="3" recordCount="177.0"/>
            <ScoreDistribution value="4" recordCount="80.0"/>
            <Node score="2" recordCount="394.0">
              <SimplePredicate field="f16" operator="lessOrEqual" value="-0.0426359292877828"/>
              <ScoreDistribution value="1" recordCount="1.0"/>
              <ScoreDistribution value="2" recordCount="288.0"/>
              <ScoreDistribution value="3" recordCount="74.0"/>
              <ScoreDistribution value="4" recordCount="31.0"/>
              <Node score="2" recordCount="301.0">
                <SimplePredicate field="f19" operator="lessOrEqual" value="0.103806765489993"/>
                <ScoreDistribution value="2" recordCount="273.0"/>
                <ScoreDistribution value="3" recordCount="19.0"/>
                <ScoreDistribution value="4" recordCount="9.0"/>
              </Node>
              <Node score="3" recordCount="93.0">
                <SimplePredicate field="f19" operator="greaterThan" value="0.103806765489993"/>
                <ScoreDistribution value="1" recordCount="1.0"/>
                <ScoreDistribution value="2" recordCount="15.0"/>
                <ScoreDistribution value="3" recordCount="55.0"/>
                <ScoreDistribution value="4" recordCount="22.0"/>
              </Node>
            </Node>
            <Node score="3" recordCount="196.0">
              <SimplePredicate field="f16" operator="greaterThan" value="-0.0426359292877828"/>
              <ScoreDistribution value="1" recordCount="36.0"/>
              <ScoreDistribution value="2" recordCount="8.0"/>
              <ScoreDistribution value="3" recordCount="103.0"/>
              <ScoreDistribution value="4" recordCount="49.0"/>
              <Node score="4" recordCount="45.0">
                <SimplePredicate field="f8" operator="lessOrEqual" value="-0.160078118575864"/>
                <ScoreDistribution value="1" recordCount="1.0"/>
                <ScoreDistribution value="2" recordCount="4.0"/>
                <ScoreDistribution value="4" recordCount="40.0"/>
              </Node>
              <Node score="3" recordCount="151.0">
                <SimplePredicate field="f8" operator="greaterThan" value="-0.160078118575864"/>
                <ScoreDistribution value="1" recordCount="35.0"/>
                <ScoreDistribution value="2" recordCount="4.0"/>
                <ScoreDistribution value="3" recordCount="103.0"/>
                <ScoreDistribution value="4" recordCount="9.0"/>
              </Node>
            </Node>
          </Node>
        </Node>
        <Node score="4" recordCount="332.0">
          <SimplePredicate field="f12" operator="greaterThan" value="0.195699858310674"/>
          <ScoreDistribution value="1" recordCount="3.0"/>
          <ScoreDistribution value="2" recordCount="7.0"/>
          <ScoreDistribution value="3" recordCount="65.0"/>
          <ScoreDistribution value="4" recordCount="257.0"/>
          <Node score="3" recordCount="56.0">
            <SimplePredicate field="f20" operator="lessOrEqual" value="-0.0730324072621573"/>
            <ScoreDistribution value="3" recordCount="39.0"/>
            <ScoreDistribution value="4" recordCount="17.0"/>
            <Node score="3" recordCount="41.0">
              <SimplePredicate field="f21" operator="lessOrEqual" value="0.126379939201636"/>
              <ScoreDistribution value="3" recordCount="37.0"/>
              <ScoreDistribution value="4" recordCount="4.0"/>
              <Node score="3" recordCount="34.0">
                <SimplePredicate field="f12" operator="lessOrEqual" value="0.336887071957231"/>
                <ScoreDistribution value="3" recordCount="34.0"/>
              </Node>
              <Node score="4" recordCount="7.0">
                <SimplePredicate field="f12" operator="greaterThan" value="0.336887071957231"/>
                <ScoreDistribution value="3" recordCount="3.0"/>
                <ScoreDistribution value="4" recordCount="4.0"/>
              </Node>
            </Node>
            <Node score="4" recordCount="15.0">
              <SimplePredicate field="f21" operator="greaterThan" value="0.126379939201636"/>
              <ScoreDistribution value="3" recordCount="2.0"/>
              <ScoreDistribution value="4" recordCount="13.0"/>
              <Node score="3" recordCount="2.0">
                <SimplePredicate field="f7" operator="lessOrEqual" value="-0.0816180845752752"/>
                <ScoreDistribution value="3" recordCount="2.0"/>
              </Node>
              <Node score="4" recordCount="13.0">
                <SimplePredicate field="f7" operator="greaterThan" value="-0.0816180845752752"/>
                <ScoreDistribution value="4" recordCount="13.0"/>
              </Node>
            </Node>
          </Node>
          <Node score="4" recordCount="276.0">
            <SimplePredicate field="f20" operator="greaterThan" value="-0.0730324072621573"/>
            <ScoreDistribution value="1" recordCount="3.0"/>
            <ScoreDistribution value="2" recordCount="7.0"/>
            <ScoreDistribution value="3" recordCount="26.0"/>
            <ScoreDistribution value="4" recordCount="240.0"/>
            <Node score="2" recordCount="9.0">
              <SimplePredicate field="f8" operator="lessOrEqual" value="-0.289558063474147"/>
              <ScoreDistribution value="1" recordCount="2.0"/>
              <ScoreDistribution value="2" recordCount="7.0"/>
              <Node score="2" recordCount="7.0">
                <SimplePredicate field="f1" operator="lessOrEqual" value="0.339908631884748"/>
                <ScoreDistribution value="2" recordCount="7.0"/>
              </Node>
              <Node score="1" recordCount="2.0">
                <SimplePredicate field="f1" operator="greaterThan" value="0.339908631884748"/>
                <ScoreDistribution value="1" recordCount="2.0"/>
              </Node>
            </Node>
            <Node score="4" recordCount="267.0">
              <SimplePredicate field="f8" operator="greaterThan" value="-0.289558063474147"/>
              <ScoreDistribution value="1" recordCount="1.0"/>
              <ScoreDistribution value="3" recordCount="26.0"/>
              <ScoreDistribution value="4" recordCount="240.0"/>
              <Node score="3" recordCount="15.0">
                <SimplePredicate field="f0" operator="lessOrEqual" value="0.947546665216876"/>
                <ScoreDistribution value="3" recordCount="10.0"/>
                <ScoreDistribution value="4" recordCount="5.0"/>
              </Node>
              <Node score="4" recordCount="252.0">
                <SimplePredicate field="f0" operator="greaterThan" value="0.947546665216876"/>
                <ScoreDistribution value="1" recordCount="1.0"/>
                <ScoreDistribution value="3" recordCount="16.0"/>
                <ScoreDistribution value="4" recordCount="235.0"/>
              </Node>
            </Node>
          </Node>
        </Node>
      </Node>
    </Node>
  </TreeModel>
</PMML>
